<?xml version="1.0"?>
<opencv_storage>
<opencv_ml_svm>
  <format>3</format>
  <svmType>C_SVC</svmType>
  <kernel>
    <type>LINEAR</type></kernel>
  <C>6.2500000000000000e+01</C>
  <term_criteria><epsilon>9.9999999999999995e-07</epsilon>
    <iterations>100</iterations></term_criteria>
  <var_count>70</var_count>
  <class_count>2</class_count>
  <class_labels type_id="opencv-matrix">
    <rows>2</rows>
    <cols>1</cols>
    <dt>i</dt>
    <data>
      0 1</data></class_labels>
  <sv_total>1</sv_total>
  <support_vectors>
    <_>
      -2.68792844e+00 -1.34670675e+00 1.33808851e+00 2.31674528e+00
      -1.88285232e+00 -7.60780096e-01 8.62344146e-01 -6.29152179e-01
      -2.24583840e+00 -3.13860893e+00 1.38917255e+00 1.29794925e-01
      -3.46818638e+00 -9.56055343e-01 -1.44633532e+00 -2.63727999e+00
      2.39788938e+00 8.23313296e-01 -1.96101928e+00 1.62326157e+00
      5.44564629e+00 -3.48773926e-01 2.71360993e+00 -4.19201899e+00
      9.62374878e+00 -4.55940843e-01 -2.77560830e-01 -1.23869002e+00
      5.10208070e-01 1.97679508e+00 -9.35273588e-01 -5.24300337e+00
      -8.47416699e-01 -2.97750521e+00 1.48342979e+00 -1.46773732e+00
      9.94314253e-03 3.13151151e-01 -1.60755277e+00 1.13836372e+00
      -1.10741150e+00 9.75603771e+00 -2.32118225e+00 1.92116290e-01
      -4.07638550e+00 4.33383249e-02 -8.17433178e-01 6.44914985e-01
      2.63079137e-01 6.74659491e-01 -1.74594760e+00 -1.57084286e+00
      1.36628759e+00 1.59499002e+00 -1.58798146e+00 -1.29959345e+00
      3.51476558e-02 1.12056041e+00 1.65376604e+00 2.71443462e+00
      -2.73726821e+00 7.18373489e+00 3.42518044e+00 1.68571800e-01
      6.33418858e-01 -3.75353742e+00 1.88140750e+00 2.86478192e-01
      3.07881773e-01 -4.27171469e+00</_></support_vectors>
  <uncompressed_sv_total>14</uncompressed_sv_total>
  <uncompressed_support_vectors>
    <_>
      5.40540554e-03 0. 1.08108111e-02 0. 0. 5.40540554e-03 0.
      5.40540554e-03 0. 0. 1.08108111e-02 0. 1.72972977e-01
      5.40540554e-03 5.40540554e-03 0. 0. 0. 0. 5.40540554e-03
      1.08108111e-02 5.40540554e-03 0. 5.40540554e-03 5.40540554e-02 0.
      0. 0. 0. 0. 5.40540554e-03 2.16216221e-02 0. 5.40540554e-03
      5.40540554e-03 5.40540554e-03 1.62162166e-02 0. 0. 0.
      5.40540554e-03 1.51351362e-01 5.40540554e-03 5.40540554e-03
      5.40540554e-03 0. 0. 5.40540554e-03 0. 1.13513514e-01 0. 0. 0. 0.
      0. 3.24324332e-02 1.08108111e-02 0. 5.40540554e-03 1.62162166e-02
      0. 3.24324332e-02 2.27027029e-01 5.40540554e-03 0. 0.
      5.40540554e-03 0. 0. 1.08108111e-02</_>
    <_>
      0. 0. 8.95522386e-02 1.49253728e-02 0. 1.49253728e-02
      1.49253728e-02 1.49253728e-02 2.98507456e-02 0. 1.49253728e-02
      1.49253728e-02 1.49253728e-02 0. 0. 0. 1.49253728e-02 0.
      1.49253728e-02 0. 5.97014911e-02 0. 2.98507456e-02 0.
      4.47761193e-02 0. 2.98507456e-02 0. 0. 0. 1.49253728e-02 0. 0. 0.
      0. 0. 1.49253728e-02 0. 0. 0. 0. 5.97014911e-02 1.49253728e-02
      1.49253728e-02 0. 0. 0. 4.47761193e-02 0. 7.46268630e-02
      1.49253728e-02 0. 1.49253728e-02 1.49253728e-02 0. 5.97014911e-02
      1.49253728e-02 0. 1.49253728e-02 2.98507456e-02 0. 8.95522386e-02
      1.49253728e-02 0. 4.47761193e-02 0. 2.98507456e-02 0. 0. 0.</_>
    <_>
      9.00900923e-03 0. 4.50450480e-02 0. 0. 9.00900923e-03
      3.60360369e-02 0. 0. 0. 0. 2.70270277e-02 7.20720738e-02 0.
      9.00900923e-03 1.80180185e-02 1.80180185e-02 9.00900923e-03 0.
      9.00900923e-03 3.60360369e-02 9.00900923e-03 9.00900923e-03 0.
      4.50450480e-02 0. 0. 0. 9.00900923e-03 3.60360369e-02 0. 0. 0.
      9.00900923e-03 2.70270277e-02 9.00900923e-03 1.80180185e-02
      9.00900923e-03 0. 1.80180185e-02 9.00900923e-03 9.00900960e-02 0.
      1.80180185e-02 0. 0. 0. 9.00900923e-03 2.70270277e-02
      6.30630627e-02 0. 0. 1.80180185e-02 1.80180185e-02 0.
      1.80180185e-02 9.00900923e-03 0. 9.00900923e-03 6.30630627e-02 0.
      4.50450480e-02 8.10810849e-02 9.00900923e-03 1.80180185e-02 0. 0.
      0. 0. 0.</_>
    <_>
      0. 0. 2.68456377e-02 0. 6.71140943e-03 0. 0. 0. 0. 6.71140943e-03
      0. 6.71140943e-03 1.81208059e-01 0. 0. 0. 6.71140943e-03
      1.34228189e-02 0. 1.34228189e-02 2.68456377e-02 6.71140943e-03
      6.71140943e-03 1.34228189e-02 5.36912754e-02 0. 6.71140943e-03 0.
      0. 6.71140943e-03 0. 6.71140943e-03 0. 0. 0. 0. 0. 1.34228189e-02
      6.71140943e-03 6.71140943e-03 0. 1.34228185e-01 0. 6.71140943e-03
      0. 0. 0. 6.71140943e-03 0. 6.71140924e-02 0. 0. 6.71140943e-03
      6.71140943e-03 1.34228189e-02 8.05369169e-02 6.71140943e-03 0. 0.
      2.68456377e-02 6.71140943e-03 4.02684584e-02 1.67785242e-01 0. 0.
      0. 0. 0. 0. 1.34228189e-02</_>
    <_>
      0. 0. 3.44827585e-02 0. 4.92610829e-03 0. 0. 4.92610829e-03
      2.46305410e-02 4.92610829e-03 0. 0. 2.51231521e-01 0. 0. 0.
      4.92610829e-03 9.85221658e-03 4.92610829e-03 9.85221658e-03
      9.85221658e-03 0. 4.92610829e-03 9.85221658e-03 4.92610820e-02
      1.47783253e-02 0. 4.92610829e-03 4.92610829e-03 0. 0.
      4.92610829e-03 0. 4.92610829e-03 0. 0. 0. 4.92610829e-03
      9.85221658e-03 4.92610829e-03 0. 9.85221639e-02 4.92610829e-03
      9.85221658e-03 9.85221658e-03 0. 0. 0. 4.92610829e-03
      3.94088663e-02 0. 4.92610829e-03 0. 4.92610829e-03 0.
      2.46305410e-02 4.92610829e-03 0. 4.92610829e-03 1.47783253e-02 0.
      3.94088663e-02 2.31527090e-01 0. 0. 0. 4.92610829e-03 0.
      4.92610829e-03 9.85221658e-03</_>
    <_>
      0. 5.49450563e-03 3.29670347e-02 0. 5.49450563e-03 0. 0. 0. 0.
      5.49450563e-03 1.64835174e-02 1.09890113e-02 1.86813191e-01 0. 0.
      5.49450563e-03 1.64835174e-02 0. 0. 0. 2.74725277e-02 0.
      1.09890113e-02 0. 6.59340695e-02 0. 0. 0. 0. 0. 5.49450563e-03 0.
      5.49450563e-03 0. 5.49450563e-03 0. 0. 5.49450563e-03
      5.49450563e-03 0. 0. 1.15384616e-01 1.64835174e-02 2.19780225e-02
      0. 5.49450563e-03 0. 0. 0. 4.39560451e-02 0. 5.49450563e-03 0. 0.
      0. 7.14285746e-02 5.49450563e-03 5.49450563e-03 0. 2.19780225e-02
      0. 2.74725277e-02 2.41758242e-01 0. 0. 0. 0. 0. 0. 0.</_>
    <_>
      1.29870130e-02 0. 2.59740259e-02 2.59740259e-02 1.29870130e-02 0.
      0. 0. 1.29870130e-02 1.29870130e-02 0. 1.29870130e-02
      1.94805190e-01 0. 0. 0. 0. 0. 0. 0. 5.19480519e-02 0. 0. 0.
      6.49350658e-02 0. 0. 0. 1.29870130e-02 0. 0. 0. 0. 3.89610380e-02
      0. 0. 0. 0. 2.59740259e-02 0. 0. 1.16883114e-01 0. 1.29870130e-02
      0. 1.29870130e-02 1.29870130e-02 0. 0. 9.09090936e-02 0.
      1.29870130e-02 0. 0. 0. 3.89610380e-02 0. 1.29870130e-02
      1.29870130e-02 1.29870130e-02 0. 0. 1.16883114e-01 0. 0.
      2.59740259e-02 0. 1.29870130e-02 0. 0.</_>
    <_>
      7.57575780e-03 0. 2.65151523e-02 0. 7.57575780e-03 0. 0.
      7.57575780e-03 3.78787890e-03 7.57575780e-03 3.78787890e-03
      3.78787890e-03 1.47727281e-01 0. 3.78787890e-03 0. 0. 0.
      1.13636367e-02 0. 3.03030312e-02 7.57575780e-03 0. 3.40909101e-02
      4.54545468e-02 3.78787890e-03 0. 7.57575780e-03 7.57575780e-03 0.
      7.57575780e-03 2.27272734e-02 0. 7.57575780e-03 0. 0.
      3.78787890e-03 3.78787890e-03 7.57575780e-03 0. 0. 6.06060624e-02
      1.13636367e-02 7.57575780e-03 3.78787890e-02 3.78787890e-03 0. 0.
      3.78787890e-03 6.06060624e-02 0. 0. 0. 3.78787890e-03
      2.27272734e-02 5.30303046e-02 7.57575780e-03 0. 0. 2.65151523e-02
      1.13636367e-02 2.27272734e-02 2.08333343e-01 0. 3.78787890e-03
      3.78787890e-03 0. 0. 0. 3.03030312e-02</_>
    <_>
      1.76470596e-02 5.88235306e-03 4.11764719e-02 0. 1.76470596e-02 0.
      1.17647061e-02 5.88235306e-03 2.94117648e-02 1.76470596e-02
      5.88235306e-03 2.35294122e-02 7.64705911e-02 1.17647061e-02
      1.17647061e-02 1.76470596e-02 5.88235306e-03 5.88235306e-03
      1.17647061e-02 0. 1.76470596e-02 5.88235306e-03 0. 0.
      1.76470596e-02 1.17647061e-02 0. 5.88235306e-03 0. 0.
      2.35294122e-02 0. 0. 3.52941193e-02 0. 5.88235306e-03
      1.17647061e-02 5.88235306e-03 2.35294122e-02 5.88235306e-03
      1.17647061e-02 1.11764707e-01 1.76470596e-02 5.88235306e-03 0.
      5.88235306e-03 0. 1.17647061e-02 0. 4.11764719e-02 0.
      1.17647061e-02 0. 5.88235306e-03 0. 7.64705911e-02 5.88235306e-03
      0. 1.17647061e-02 1.76470596e-02 5.88235306e-03 4.11764719e-02
      8.82352963e-02 0. 1.76470596e-02 2.35294122e-02 0. 0. 0. 0.</_>
    <_>
      1.94174759e-02 9.70873795e-03 1.94174759e-02 0. 1.94174759e-02 0.
      9.70873795e-03 9.70873795e-03 1.94174759e-02 1.94174759e-02 0.
      2.91262139e-02 1.65048540e-01 0. 0. 3.88349518e-02 0.
      9.70873795e-03 9.70873795e-03 0. 2.91262139e-02 0. 0. 0.
      1.94174759e-02 0. 1.94174759e-02 0. 0. 0. 0. 0. 9.70873795e-03
      3.88349518e-02 0. 1.94174759e-02 0. 9.70873795e-03 1.94174759e-02
      0. 0. 6.79611638e-02 0. 1.94174759e-02 0. 9.70873795e-03
      1.94174759e-02 9.70873795e-03 9.70873795e-03 6.79611638e-02 0.
      1.94174759e-02 0. 0. 0. 4.85436916e-02 0. 0. 0. 9.70873795e-03 0.
      0. 1.45631075e-01 0. 0. 2.91262139e-02 0. 0. 0. 0.</_>
    <_>
      1.68067235e-02 0. 4.20168079e-02 0. 8.40336177e-03 2.52100863e-02
      0. 0. 3.36134471e-02 1.68067235e-02 0. 0. 2.10084051e-01 0.
      1.68067235e-02 0. 0. 0. 0. 0. 8.40336177e-03 0. 0. 0.
      8.40336177e-03 0. 0. 8.40336177e-03 8.40336177e-03 0. 0. 0. 0. 0.
      0. 0. 1.68067235e-02 0. 1.68067235e-02 0. 0. 9.24369767e-02
      8.40336177e-03 2.52100863e-02 1.68067235e-02 0. 0. 0. 0.
      7.56302550e-02 2.52100863e-02 0. 8.40336177e-03 0. 0.
      4.20168079e-02 8.40336177e-03 0. 0. 1.68067235e-02 2.52100863e-02
      8.40336177e-03 1.84873953e-01 0. 8.40336177e-03 8.40336177e-03 0.
      8.40336177e-03 0. 0.</_>
    <_>
      0. 1.21951215e-02 2.43902430e-02 0. 6.09756075e-03 0.
      6.09756075e-03 0. 6.09756075e-03 6.09756075e-03 0. 0.
      2.92682916e-01 6.09756075e-03 0. 0. 1.21951215e-02 6.09756075e-03
      1.82926822e-02 6.09756075e-03 2.43902430e-02 0. 6.09756075e-03
      6.09756075e-03 2.43902430e-02 6.09756075e-03 6.09756075e-03
      6.09756075e-03 0. 0. 6.09756075e-03 1.82926822e-02 6.09756075e-03
      1.82926822e-02 6.09756075e-03 0. 0. 0. 6.09756075e-03 0.
      2.43902430e-02 6.70731664e-02 1.21951215e-02 6.09756075e-03 0. 0.
      6.09756075e-03 1.82926822e-02 0. 5.48780486e-02 1.21951215e-02
      1.21951215e-02 0. 0. 0. 6.09756075e-03 1.21951215e-02 0. 0.
      6.09756075e-03 0. 1.21951215e-02 1.64634138e-01 6.09756075e-03
      1.21951215e-02 1.82926822e-02 0. 0. 0. 6.09756075e-03</_>
    <_>
      9.09090880e-03 0. 5.45454547e-02 0. 9.09090880e-03 0. 0.
      9.09090880e-03 0. 1.81818176e-02 0. 0. 9.09090862e-02 0. 0.
      9.09090880e-03 0. 0. 9.09090880e-03 0. 0. 9.09090880e-03 0.
      6.36363626e-02 4.54545431e-02 0. 9.09090880e-03 0. 0. 0. 0.
      8.18181783e-02 9.09090880e-03 9.09090880e-03 0. 9.09090880e-03 0.
      0. 0. 0. 0. 1.27272725e-01 2.72727273e-02 1.81818176e-02
      1.81818176e-02 0. 9.09090880e-03 0. 9.09090880e-03 1.36363626e-01
      9.09090880e-03 9.09090880e-03 0. 0. 1.81818176e-02 9.09090880e-03
      9.09090880e-03 0. 0. 1.81818176e-02 9.09090880e-03 1.81818176e-02
      2.72727273e-02 0. 0. 9.09090880e-03 0. 0. 0. 7.27272704e-02</_>
    <_>
      0. 9.70873795e-03 1.94174759e-02 0. 0. 9.70873795e-03 0. 0.
      1.45631069e-02 4.85436898e-03 0. 9.70873795e-03 3.00970882e-01
      4.85436898e-03 0. 4.85436898e-03 0. 0. 0. 4.85436898e-03
      1.45631069e-02 0. 4.85436898e-03 0. 3.88349518e-02 4.85436898e-03
      9.70873795e-03 0. 0. 0. 0. 4.85436898e-03 0. 1.45631069e-02 0.
      4.85436898e-03 0. 9.70873795e-03 9.70873795e-03 0. 4.85436898e-03
      3.39805819e-02 4.85436898e-03 0. 9.70873795e-03 0. 0.
      1.45631069e-02 0. 1.45631069e-02 0. 9.70873795e-03 0. 0. 0.
      1.11650489e-01 4.85436898e-03 0. 0. 2.42718458e-02 0.
      1.45631069e-02 2.33009711e-01 4.85436898e-03 0. 1.45631069e-02 0.
      0. 0. 0.</_></uncompressed_support_vectors>
  <decision_functions>
    <_>
      <sv_count>1</sv_count>
      <rho>1.3273903304615917e+00</rho>
      <alpha>
        1.</alpha>
      <index>
        0</index></_></decision_functions></opencv_ml_svm>
</opencv_storage>
